{
  "penalty": "l2",
  "dual": false,
  "tol": 0.0001,
  "C": 0.00072,
  "fit_intercept": true,
  "intercept_scaling": 1,
  "class_weight": "balanced",
  "random_state": null,
  "solver": "liblinear",
  "max_iter": 100,
  "multi_class": "ovr",
  "verbose": 0,
  "warm_start": false,
  "n_jobs": 1,
  "l1_ratio": null,
  "coef_": [
    [
      0.009864299217488277,
      0.009914902900181242,
      0.003930319151690522,
      0.00038856910608399105,
      0.015608474874023164,
      0.0027945825188370682,
      0.0057057975299719815,
      9.778047634077928e-06,
      -0.01883577759343728,
      0.006332065376504346,
      -0.00880277433206205,
      0.007818053562672718,
      0.01640792613147723,
      -0.003938840677439773,
      0.014195212226097351,
      -0.005245492008452468,
      -0.016537819286171887,
      -0.0026072409638568696,
      0.001076630882831535,
      -0.007375935696468131,
      -0.007978734256220706,
      0.008596643036392598,
      -0.0014371084358802027,
      0.0010247651031933822,
      -0.005024570423536855,
      -0.0020754690827025487,
      0.006827652641009159,
      0.0013162237447025132,
      0.00424318992837847,
      0.004063015312938862,
      0.002664015631578715,
      0.0015463822514510772,
      -0.004908961887709991,
      0.004121222310885101,
      -0.0021404879741116194,
      0.0035921775806586533,
      0.012041285106570746,
      0.006296135505712068,
      -0.012349913966133897,
      0.013110761786080663,
      -0.01555706561615949,
      -0.011800024182983529,
      -0.005794415485088081,
      0.015156451349970606,
      0.010872110898536569,
      0.004440297986217895,
      0.0013082143999754799,
      -0.008007596692089449,
      -0.010122707969490725,
      -0.012014337397279563,
      0.008416053343205214,
      0.01709912247825136,
      0.015051103864971875,
      0.005594596832984755,
      -0.015050826634507042,
      0.0017474417973524041,
      0.004590786522609958,
      0.005926025865109845,
      -0.003956151626622497,
      -0.006496268842824974,
      0.026313662225754958,
      0.018112270465357422,
      0.019145200161294444,
      0.006089682281991177,
      -0.006504077960839196,
      -0.007963268675605702,
      -0.014907197308970405,
      -0.01738358404651107,
      -0.009201703678735013,
      0.0017010787817425981,
      -0.011537754067539093,
      -0.011109978973776252,
      0.002326450474560638,
      -0.01141793163887303,
      -0.012821845562824877,
      -0.008701719254744424,
      -0.015504302499133375,
      -6.982557065663218e-06,
      -0.0006468440368530457,
      -0.0033503563102100426,
      0.0058918312912664824,
      -0.0034155020339552726,
      -0.009447806432848309,
      -0.00604863357639471,
      -0.016482322607657758,
      0.00540194014028345,
      2.4809217401339107e-05,
      -0.005846138853157647,
      0.010009651316905703,
      -0.011729693055113396,
      -0.010050799125047367,
      -0.011244980300961648,
      -0.020303772572131194,
      -0.006542619885096526,
      -0.00542154634880311,
      0.003966346992050557,
      0.0026130932610849136,
      -0.006452953864078891,
      -0.0053908193807753425,
      -0.016539838557218623,
      -0.015079040588350402,
      -0.0025846919914662534,
      -0.001485325017315784,
      -0.009433440546499914,
      -0.0008289396955143059,
      -0.004735604415844044,
      -0.00039797014746208626,
      -0.00535689590260492,
      0.0018093884565412593,
      0.01246953068651562,
      -0.004630477357224455,
      0.003566765301924901,
      0.006828985541761628,
      -0.00822937332504748,
      -0.0093007980755421,
      -0.010998198256139671,
      -0.002124505001056212,
      0.0035972916026164254,
      0.0025787904798961828,
      -0.006249811792835986,
      0.0010557819768191852,
      0.0032592357445692228,
      -0.013098723493364887,
      0.0011173706898223712,
      -0.004641570991313563,
      0.010323100370123354,
      0.010990611780125541,
      -0.006594618588527416,
      -0.007017190364290251,
      -0.0053635445571156145,
      0.006697576178623961,
      -0.016639713079037107,
      -0.0037054466132880473,
      0.009448557353800853,
      0.004445178960654621,
      -0.00430250250527778,
      -0.01371239920367727,
      -0.007221508511401319,
      -0.015417435610094232,
      -0.011818918736966551,
      -0.003247342521066377,
      0.012993994612350205,
      0.019619005372051586,
      0.00023938662763077392,
      0.01425351611644018,
      -0.002522909703068842,
      0.000653092450286342,
      -0.008339643237180325,
      0.005357895184605741,
      0.0034744370698162512,
      -0.004168337837333206,
      0.0009296842000312448,
      0.009408082253482823,
      0.010082421879485265,
      -0.006915748342654721,
      -0.002780212569042936,
      0.015525469520127956,
      0.009674047402946504,
      0.01049833844125164,
      0.010572157708866149,
      0.004083990635158005,
      0.0015236599740785478,
      -0.011826126021404102,
      -0.02142304634383233,
      0.009712547212959407,
      -0.0005690888376673653,
      0.0054637732666184095,
      0.007384115520799562,
      0.008310603633290524,
      -0.007037392494749907,
      -0.004889624048303066,
      -0.012609320123025349,
      -0.02342075249992549,
      -0.0012380984985118867,
      0.00918308204401048,
      -0.007018707825428418,
      0.0027376093493357233,
      0.013386180689676076,
      0.0021973448127845844,
      -0.0053254756540981,
      -0.004514292865159324,
      -0.0005432820407749233,
      0.006804450767293899,
      0.005369874752701685,
      0.004654756535450358,
      -0.00038537731627256994,
      0.005817316404384494,
      -0.0020858656510060157,
      0.015851848552142746,
      0.007218320975289205,
      0.007345510330842189,
      -0.006064754580606829,
      0.012916795703287806,
      -0.0016191395734736823,
      0.002881366056006163,
      0.010966036800068827,
      0.012916755696927207,
      0.0035648944685961414,
      -0.019890978335893865,
      -0.011867532379139609,
      0.005649400058663402,
      -0.00302512174552016,
      -0.0041445907713542245,
      0.01556904969116616,
      0.001986030805868281,
      0.008542414773352323,
      -0.003822691629665581,
      0.005780615282364037,
      0.0045322095253623,
      -0.012485226871142988,
      -0.016088621151453927,
      0.012031171748586223,
      0.008203548311571414,
      0.004103407859931578,
      -8.956160097327439e-05,
      0.004374698603527958,
      -0.00922692613908588,
      -0.0006566560942367308,
      -0.0032962148088252737,
      0.013226658987015952,
      0.018264530022024425,
      0.007290611798436591,
      0.012281979931936561,
      0.004428600151485664,
      -0.013074667461712423,
      -0.015367940283295212,
      -0.003376969222419884,
      0.013074583945887366,
      0.00576023876781788,
      0.026680040767606415,
      0.017434191666144457,
      -0.0075528141000745525,
      0.00037639566454681695,
      0.0006967632261565303,
      -0.00503402213627972,
      0.011574804891964972,
      0.02508523637549873,
      0.020444116945002214,
      0.012962634220745494,
      0.002412260705187196,
      0.017241122956420378,
      0.0015487898399898909,
      -0.014115905669660997,
      0.004266360833758299,
      0.020062636437314672,
      0.021564936387017557,
      0.022999361928901733,
      0.012682028207940475,
      0.0053026983709035325,
      -0.007715582838746959,
      -0.016195896979187656,
      0.005073389620826409,
      0.023626281108246903,
      0.024214650010066494,
      0.01115157483904786,
      0.01824511235461608,
      0.011132570515604819,
      0.011832494260373843,
      0.00906933697875779,
      0.006819779525531847,
      0.014100133888908227,
      0.006802946917277745,
      -0.004836464890237371,
      0.005580834287275864,
      0.00505718825175016,
      0.011152592564146467,
      9.625108454908138e-05,
      -0.0004952078374303602,
      0.007265257134138266,
      -0.009893126520404907,
      -0.001334378351591446,
      0.010764877378596646,
      0.008969635391583228,
      0.006794007250069149,
      -0.0019645937757742163,
      0.005970884671899348,
      0.012473391404661681,
      -0.0005191249187118236,
      -0.009313411256751985,
      0.006194956017746405,
      -0.0011267583706286604,
      0.010480955075853811,
      0.004615656843115192,
      2.9611226055719267e-05,
      0.00807029560887791,
      0.005920950513493044,
      -0.013993548505914496,
      0.00026052409436356296,
      0.015247957800324077,
      0.018072034737716968,
      0.008271778784175843,
      0.0062727568272867495,
      -4.9009436450173465e-05,
      0.002689340951386744,
      0.0024305460508097154,
      -0.00359463867708182,
      0.002609314559990378,
      0.016964562796455494,
      0.00452810846537327,
      0.008907793037435514,
      -0.006603183317466286,
      0.00532424787722241,
      -0.002615838696320499,
      -0.0076614836271878695,
      0.00482541952563725,
      0.016880918733812714,
      -0.001651540869817686,
      -0.00022528310130583617,
      -0.013620287985144778,
      0.0043583406799266675,
      -0.010206969480349307,
      -0.006790186902184155,
      0.011664799388719274,
      0.012964286081546315,
      -0.003221881001904895,
      -0.005782484021038852,
      0.0015137766660152335,
      0.0007643789907787861,
      -0.01028353469665183,
      0.00030853483407322684,
      0.003417989573009633,
      0.011884818208027838,
      -0.005390687146778948,
      -0.0006291021671358093,
      0.012313327642723507,
      0.009317761520238015,
      -0.007213400330446223,
      -0.0012824821162041233,
      0.009322012067401379,
      0.004867824962674516,
      0.001170735562369034,
      0.0025632459363936944,
      -0.0015626758134875082,
      0.0068588314270992224,
      0.0006852556830329497,
      -0.0036229359195181824,
      0.007075276111704705,
      0.004204228302931859,
      0.011080379326431947,
      -0.0018342358474498605,
      0.006103533579408496,
      0.01117918637976269,
      -0.004256808396062954,
      -0.007165197330218421,
      -0.004942850318434603,
      0.0021340397682792075,
      -0.013003416157350607,
      0.0006340559866578723,
      0.009686423242989564,
      0.016526664449555625,
      0.02371040402509524,
      0.0015632756660697942,
      -0.006074975236253737,
      0.00840546071594231,
      -0.007939107581488627,
      -0.023050289606727663,
      -0.010415284439012143,
      -0.005529931686804556,
      0.001405522353627944,
      0.004434602239214855,
      -0.026571950124553073,
      -0.0018301177162141577,
      -0.00804460783677351,
      -0.013385594369045288,
      -0.00822824604686305,
      -0.00817270278289946,
      -0.006382261669080197,
      0.002726707373623411,
      -0.009969277337876175,
      -0.007057491816859364,
      -0.013648316458860303,
      -0.011433041564608731,
      -0.0017274034209316896,
      -0.0018058843899303916,
      0.005976812432050405,
      -0.005031832453915343,
      -0.015864180690446667,
      -0.0010213676778971805,
      -0.0031121287744987455,
      0.004916415170742055,
      -0.0099106804701006,
      0.004739056668796106,
      0.00648997695838428,
      0.0068252362584587485,
      -0.00032796997197468406,
      -0.005010064514634957,
      0.010065922116215218,
      0.010550380759362965,
      0.0006262300127916052,
      -0.007529920569119481,
      0.010694602195107948,
      -0.0021098024602727227,
      0.005037832245579039,
      0.005149283628462404,
      0.004208235146664491,
      0.011308775628792128,
      0.008692761794199363,
      -0.010029269839379379,
      -0.011378789455550377,
      -0.0012600724519763978,
      0.0024510676170822684,
      0.009665993165826642,
      0.011809214919683694,
      0.006421788047003158,
      -0.01503860141800324,
      -0.0017624879261128308,
      0.0023340206606134116,
      0.0041352920636866675,
      -0.001441401718266037,
      0.004285177348503205,
      0.0016222233149287407,
      -0.0003581615996652825,
      -0.0018842829056153062,
      0.0037508390346942134,
      2.526756559854136e-05,
      -0.00946888628709761,
      0.012007126360201828,
      -0.014053280116584396,
      -0.010205359585807072,
      -0.009216671168943731,
      -0.0018256861034333803,
      -0.005579617927185291,
      0.001973374484448739,
      -0.01720550924589873,
      -0.014439436149346608,
      -0.023864624639504412,
      -0.01187494780931279,
      -0.01562300935028691,
      -0.0063022641793564205,
      0.005379004194363691,
      -0.005206900080430564,
      0.004594810721190341,
      -0.005797759792137704,
      0.0023116944106744346,
      -0.019170978290423933,
      -0.01280896639490423,
      -0.021889685852913125,
      0.0058859786594737595,
      0.0007753582583123815,
      -0.0006972416269554679,
      -0.0006369699684626507,
      -0.012221863552062728,
      -0.016012925881499444,
      -0.02188330119539132,
      0.000565865208362179,
      0.003533963042761672,
      0.003821224303778976,
      -0.0007590049387375552,
      -0.010979054630006422,
      0.004618692838450886,
      -0.01800241873253104,
      -0.018052710926299894,
      -0.016069154155569015,
      0.0027562653156187325,
      -0.00969720505793642,
      -0.002112785054126141,
      -0.02131910941960702,
      -0.017681733035954057,
      -0.006093194400694611,
      -0.016898218170399572,
      0.006587613695856122,
      0.00036631539972715055,
      0.007087633000260906,
      0.013729902581933975,
      -0.0009360960774959122,
      -0.007190814466550167,
      0.002378844885020922,
      -0.011887702652612558,
      -0.0028716110769168024,
      0.0015713673717963512,
      0.009558464853616134,
      -0.001478549316236999,
      -0.003525338368144546,
      0.006964022979408231,
      -0.00872019073366555,
      0.004127925111862092,
      -0.0008080959562807324,
      -0.0029368470086080334,
      0.009386796090257698,
      -0.001966057345323428,
      0.004478500749378085,
      0.008690407660193484,
      0.013436080326632847,
      -0.004196005802364432,
      -0.0020465806450091963,
      -0.006001022450338536,
      0.006001144190049496,
      -0.005897866049128167,
      0.0019182581576387256,
      -0.0024756732005222523,
      0.004811876119387033,
      -0.006172505146879333,
      0.0004719933719876992,
      -0.0012566810312802967,
      -0.013544061297767074,
      -0.00822195861065716,
      -0.0022819165365660444,
      0.007099307315729804,
      0.010351412953653272,
      0.0072912259559885315,
      0.01974903715033428,
      0.0022347952689125285,
      -0.0027409673600325094,
      0.0008278701908639245,
      0.005940348660270713,
      -0.008092678718385402,
      0.012326315136730256,
      0.00821591093805928,
      0.014292068300102713,
      0.015842751348226283,
      -0.005602888015684572,
      0.0174733688736219,
      0.0005758584278602332,
      -0.0015865630949329068,
      -0.011162145778293161,
      0.003993870665911016,
      0.007444697323456514,
      -0.0029114852119414064,
      0.007497073410773157,
      -0.004149923139198447,
      -0.005429485425559339,
      0.007124648709703193,
      -0.011713519612017368,
      0.010130673276236322,
      0.0062427489928947545,
      0.005870309664406542,
      -0.0050417660529056526,
      -0.0054863921952572284,
      -0.008657509419865638,
      -0.008111102489564679,
      -0.0025088563582831773,
      0.002581970655330392,
      -0.0009812392308287245,
      0.004360582640959934,
      -0.00011946181307511594,
      0.007510032284448428,
      0.00601613165069649,
      0.004482842679492949,
      -0.005522495007643267,
      -0.0009981065351529037,
      -0.006395606333485919,
      -0.005745705333658435,
      0.003837364708788494,
      0.0009148608909947775,
      -0.004614914396293949,
      -0.008095472514666972,
      -0.010388775405096676,
      0.002871992369370543,
      -0.0009302932759107059,
      -0.004098738438433623,
      -0.002369989587440572,
      0.0020088368868266793,
      -0.012216240293705612,
      -0.013579754673678513,
      -0.002859277059906087,
      -0.0038415380376169493,
      -0.00041069657677288954,
      -0.002346981370738239,
      0.006370461730465284,
      -0.002778269570657787,
      -0.004291307535622368,
      -0.014974246189433438,
      -0.0020496052669425075,
      -0.0031730603869279373,
      -0.006350753551791867,
      5.9686915592888355e-05,
      0.0014418614846417222,
      -0.003899073144543532,
      0.0059401175689192485,
      0.011989264529977544,
      0.0028410914739302024,
      0.005856329568098539,
      -0.012321103330226475,
      -0.003313260103672668,
      0.009992330602178471,
      0.0077727549108493115,
      0.007123285660382371,
      -0.003410292868019577,
      -0.010804468794404758,
      2.0481754033437813e-05,
      -0.004727661178239861,
      -0.01176199137715497,
      -0.012584297625721778,
      -0.002654758649889787,
      -0.005392248039917343,
      0.0014698838274544912,
      -0.008335274163966575,
      -0.005741552613486519,
      -0.012934420524938149,
      0.001938025764910732,
      -0.0003044590600464606,
      0.02121573315787012,
      -0.008757891258672627,
      0.001978624462675304,
      0.007301338254105869,
      -0.003885729295454672,
      0.006181291179590603,
      -0.0011483522547050102,
      -0.0002856004220130375,
      -0.0034097372229303486,
      -0.007654446915762181,
      -0.002188395817713809,
      0.0072716631202785886,
      -0.0017188662697108178,
      0.0058327987310396855,
      -0.009689026223035361,
      -0.013433621527085975,
      -0.001554332748464459,
      -0.009684257932840959,
      -0.004656067249092708,
      -0.0001245243709815456,
      -0.007692640128545396,
      -0.004510605569563398,
      0.0033067005129564756,
      0.0019454926437440726,
      -0.005035712412762894,
      0.003600578779619687,
      0.006856692566039927,
      0.008373864907382253,
      0.0073701278117812435,
      0.021538839791545257,
      0.0008014836251155163,
      0.0070279031917102755,
      0.00609567641032768,
      0.01000081780540546,
      0.0046548860541431696,
      0.006006758343957756,
      0.0019471627243405401,
      0.00862672118246997,
      0.008324689601347097,
      0.0015296016803669555,
      -0.0037258683138235143,
      0.004141658154408132,
      0.013904415028316776,
      -0.008758795789518374,
      0.0008634077062428337,
      0.00574851096789412,
      -0.002185221402075017,
      0.019848596339583205,
      -0.008322555358429521,
      0.003094587767705307,
      -0.001981138153903829,
      0.0033609821320482896,
      0.006005094397015962,
      0.0014278613626700213,
      0.005627043349974969,
      0.01488069369920178,
      0.015791924306347987,
      0.0051935820197628515,
      -0.0013192058303174011,
      -0.007098162193552968,
      -0.0004754039524324197,
      0.002961028856655549,
      0.00329684576145855,
      0.010621713888897896,
      -0.009122586405214463,
      0.008275305457512426,
      0.0010520170418578706,
      -0.005815644008957249,
      0.008272215410107952,
      -0.00044492186885160327,
      0.004693051821411249,
      0.0038173511842470543,
      0.006889033496137379,
      0.0020367980201294995,
      -0.0007419871926632523,
      -0.01263294682192521,
      -0.006989718299139452,
      -0.00013626176341892567,
      0.003264443380607121,
      0.009289852603206755,
      -0.0020143686441894296,
      0.0006587963352353193,
      0.010794967114372224,
      0.007805484441184854,
      0.009934019778828854,
      0.01212164243255638,
      0.01403091964938918,
      0.010110362025850429,
      0.011303606559037371,
      0.0005228455291172292,
      -2.1478167759506258e-05,
      0.002691344258173397,
      0.003950167869771312,
      -0.003703229163802946,
      -0.0022241268621984,
      -0.005628825702447041,
      -0.003157981520804523,
      0.005323242171187105,
      0.002050571455110793,
      -0.0010971782384321031,
      -0.00398270742056097,
      0.0005759633303513481,
      0.018017113612543205,
      0.011511910866999169,
      0.005682751097741481,
      -0.006652585718413246,
      -0.0019908862318635395,
      0.00016350335527025634,
      -0.007569631576987807,
      0.016644778464841296,
      0.000956255238065884,
      0.0045572424432833445,
      0.01471041945672516,
      0.00016445715244297476,
      0.0012111720901032182,
      -0.003790444683266755,
      -0.006875464283700291,
      -0.005460316154985031,
      -0.007959078396216563,
      -0.00685108762430549,
      0.0021927352583954378,
      0.028027132523409947,
      0.008267035157706791,
      -0.009946326073311418,
      -0.01016358591095245,
      0.007703660442969291,
      0.015133951832538283,
      -0.003286490933142178,
      0.0064425127386212875,
      -0.0012125990634622437,
      -0.003986365723978118,
      -0.014326873660669604,
      -0.01241271430430622,
      -0.008736091187734834,
      -0.005247293884118171,
      0.0006942913017386251,
      0.011153337882283976,
      -0.0004369848438621209,
      0.0051946108871091645,
      -0.009704102864332554,
      -0.009207480293576896,
      -0.009037953103823439,
      -0.0208147752484926,
      -0.00527422790676646,
      0.01531561402484889,
      0.006872689472767353,
      0.006742745627101218,
      -0.008886982169536864,
      0.0008056540718916935,
      0.008146792171765586,
      -0.005876843672111246,
      0.00442311918554701,
      -0.001849940709956038,
      -0.004733126639581101,
      0.009394884769407842,
      -0.010418383386602085,
      -0.009401756208190034,
      -0.0006942381270115941,
      -1.8181056254101936e-05,
      -0.009643879065651463,
      -0.010446876660621326,
      0.013484382551256046,
      0.015072304789225255,
      -0.0066076528362586755,
      -0.017643627629271835,
      -0.0024316388392920784,
      -0.0026931670774843906,
      0.00040897606255009474,
      -0.0033118841173935703,
      -0.0024828450294680764,
      0.00718042210546967,
      -0.009794584219628904,
      -0.011265582428006607,
      -0.005534676613405306,
      -0.008952401340364052,
      -0.005924870018444516,
      -0.002445461931897261,
      -0.0064680181152286876,
      -0.0018205832048619633,
      -0.0005109446197305884,
      -0.0050371370647477485,
      0.005056682102359839,
      -0.007515577341421535,
      -0.008282039825360412,
      -0.002792762635872636,
      0.0013604594677375226,
      0.00938229043488144,
      -0.007895923185057212,
      -0.01550997201453439,
      -0.006438830698316694,
      -0.010441624235323996,
      0.003943429384561581,
      -0.010512748858636251,
      -0.002257772558618484,
      -0.013094422719432735,
      -0.012855642328722739,
      -0.005359171773772414,
      -0.019702363911842505,
      0.022180951269068945,
      0.03291980409020883,
      0.015898005942244647,
      0.003344386659210303,
      0.00012419339720163238,
      -0.010980900348357386,
      -0.013204197827247525,
      -0.016898720585980086,
      0.014367212465051904,
      0.019256918369966885,
      -0.003672449299391266,
      -0.019542873259236173,
      -0.01007482774903076,
      -0.014130165565324414,
      -0.007706130552544329,
      -0.002817735831627036,
      0.0032899937542363983,
      0.006359766355256454,
      0.008517767679788126,
      -0.009206113384073587,
      -0.013023346825076892,
      -0.011992155624218927,
      0.0002112012157770851,
      -0.0016353348879105064,
      -0.00220855566341584,
      0.017410703451578042,
      0.010338004552438902,
      0.000598470930530656,
      -0.005566529880606497,
      -0.004553076735766554,
      0.001728023095764752,
      -0.0033087803839943037,
      0.0001411010983844333,
      0.010725360641781707,
      -0.004633540057345699,
      -0.0016147562064646992,
      -0.0039195429341642805,
      -0.011748164366100905,
      0.004729882134628589,
      0.0035597734557425383,
      0.013344082686759896,
      0.016924091471259502,
      0.0015047352690261357,
      -0.00292224648640793,
      -0.0015178536643747416,
      -0.003093087975741371,
      0.01158951694484768,
      0.0041747279128154765,
      0.0037469576325410876,
      0.001871572111020466,
      -0.008099500891629209,
      0.0031964792533637426,
      -0.006154534723483702,
      -0.006831248874877745,
      -0.007881301146519417,
      0.011513718108838174,
      0.013377792162051262,
      0.026055230470325468,
      0.0130172165342366,
      -0.0014791507583931122,
      -0.014043980046178104,
      -0.0008732985920295089,
      0.0035546887946874437,
      0.017704721699946087,
      0.015010924605444162,
      0.0017920510659885254,
      -0.002588890164847229,
      -0.005864031747086509,
      -0.008745012357917798,
      -0.013664214449415962,
      -0.00014701743284439365,
      0.017518633895227988,
      0.005269020229170825,
      0.016293621319203568,
      0.013065947515435994,
      -0.0022468761930920754,
      -0.000598669744881332,
      -0.001326211802207952,
      0.002375774598630726,
      0.006819879181753214,
      0.01583940300520989,
      0.0028263784540507137,
      -0.005620391515890112,
      -0.01383942158046529,
      0.005998704163512991,
      -0.01472669578859431,
      -0.0032928288652723705,
      0.004441691266732264,
      -0.0026624328207305813,
      -0.0060915257836509015,
      0.005006248925417985,
      -0.002872219422066198,
      0.0046152437534369055,
      -0.01718982993400318,
      -0.007714764458125168,
      0.001731607454642843,
      -0.01361858621200507,
      0.00024288293584451975,
      -0.01117507664540841,
      0.0030790195926793554,
      0.006177006939993918,
      -0.006033155280333592,
      -0.002155052018242139,
      0.006617711943084285,
      -0.0014910224836243622,
      -0.003846981287533344,
      -0.005168722841082945,
      1.0572139728893932e-06,
      -0.007748271659518975,
      -0.022704376644116904,
      0.0014894435015484003,
      0.019656783570696824,
      0.01717735916754249,
      0.008013520892371203,
      0.005389006991243406,
      -0.0011110906953142174,
      -0.0088135866870581,
      -0.014908561768896461,
      0.007253509343800889,
      0.010456742431206522,
      0.02409103411117062,
      0.009043593071904058,
      -0.0028025436550164606,
      0.001949899760891508,
      -0.0021665576410709493,
      -0.003205966060659251,
      0.006854430433740167,
      0.004506072853249453,
      0.010341260452445255,
      0.002720891511620484,
      0.009760156579828504,
      0.0036000451895308685,
      -0.004513650337370146,
      -0.01487104508182286,
      0.0008032833412702723,
      0.006595698992023335,
      -0.004506743272598468,
      0.0007864525959072699,
      -0.00478306439095619,
      -0.013157961930005803,
      -0.012100746213088178,
      -0.023929352418021868,
      0.005368238447024835,
      -0.0005448125706294658,
      -0.005999022163231816,
      0.0010158843084225261,
      -0.003856674519694277,
      -0.013195549584392662,
      0.0013541213184940935,
      -0.011387154642326766,
      0.001118236124843682,
      0.00666299212983908,
      0.0009111724191453624,
      -0.014662009346560673,
      -0.008791172620226294,
      -0.018263487071792126,
      -0.007738512419434234,
      -0.017524647795560913,
      -0.007552337185565269,
      -0.006453989375560026,
      0.0005611782882741627,
      -0.0037546208813465432,
      0.005668211765649312,
      -0.011988626748797403,
      -0.005938069660874572,
      -0.0038810013514733763,
      -0.00818470414032224,
      -0.008306789263994672,
      0.01133679096812233,
      0.0029201639225291207,
      -0.009896335019299667,
      0.006309141193749181,
      0.0011930126472507096,
      -0.002602312694217722,
      -0.00683633113919705,
      -0.009149345349680591,
      -0.00600356611357578,
      -0.001581450096073991,
      -0.005481918446483183,
      -0.009202457403485353,
      -0.008231844883443282,
      -0.01370236386111501,
      -0.0075732020064039314,
      -0.007925888734511997,
      -0.0034868172296350372,
      -0.009930195025716876,
      0.010082517263451945,
      0.007812092477532536,
      -0.01054634077705352,
      -0.015083131054385277,
      -0.005131412627016475,
      -0.007524245859599241,
      -0.01096401746836875,
      -0.001550690236729246,
      -0.004295034786660002,
      -0.011232037321731869,
      -0.010246527486402864,
      -0.019354552254870934,
      -0.00045957132599383743,
      -0.002303919126439291,
      -0.008095491023597922,
      0.001559628258275121,
      -0.007835268053345364,
      -0.006578700567481706,
      -0.008881417080507733,
      -0.005368275114349435,
      -0.012053387760137157,
      -0.005725169260329702,
      0.00893004242984665,
      -0.004496634292603928,
      0.005208954302964407,
      0.00013417662156814646,
      0.006655201176416801,
      0.004891216826713756,
      0.004021855163293944,
      0.014202777471551402,
      -0.0002870493133290885,
      0.0063623753744524395,
      0.0060047209227306305,
      0.0074900408690992655,
      -0.006791249715004393,
      0.001700375589027681,
      0.0005525212466292516,
      0.012286896286715967,
      0.009721610521206802,
      0.008224732533667923,
      0.0037329792002773047,
      -0.0025435206532271166,
      -0.0035885625029891213,
      -0.0030401254909020285,
      -0.0024456675033105654,
      0.010380888075572295,
      0.00943232213813873,
      0.007537224980952755,
      -0.010815914404071515,
      -0.0066005456828803575,
      0.0005611905612708027,
      0.000451473704128827,
      0.005794585696761326,
      0.010541362624247624,
      0.005823499925750396,
      -0.0038943397082303274,
      -0.0043369739313689135,
      0.009037725070135208,
      0.002034523310845909,
      -0.0038618810018387867,
      0.001514389407111791,
      0.013553229795194176,
      0.005972862263005819,
      -0.0014793277401303488,
      0.0004903566287185766,
      0.013914143307549334,
      0.0067215766634544085,
      0.00623015045634464,
      0.007138789869032002,
      0.02066537764463161,
      0.019532306636974864,
      0.0073213585375630314,
      0.006621080018097045,
      0.002244883871600617,
      0.006157079511055135,
      0.0016923660726447405,
      -0.015009346322741009,
      0.007221824922016411,
      0.0008458856267803512,
      0.001320321411484163,
      -0.005261674537781662,
      -0.0033082384358776354,
      -0.0050253423752434564,
      -0.011295906019946022,
      0.0033704343243279463,
      0.014398696443978972,
      0.005583767823455971,
      0.0077930557055023225,
      0.009049118445817237,
      0.002962628469288329,
      -0.008472995136042489,
      -0.009502793860770539,
      -0.00898757951123128,
      -0.019609589376741364,
      -0.020598437986480058,
      -0.007848563224607244,
      -0.007142143541109999,
      1.6096160356894335e-05,
      0.015373261181072614,
      -0.011448017732112402,
      0.005694971049301312,
      0.006675914533618686,
      -0.007212707810236123,
      -0.011402411696587527,
      0.012810141961140904,
      0.011690174371704476,
      -0.004289490761982906,
      -0.004687416745769392,
      -0.004006932413771331,
      -0.010361187209580569,
      -0.00634200101620885,
      -0.0025846530132201785,
      -0.002948936089015206,
      0.012952724124275963,
      0.010262519195694894,
      0.010081819961472274,
      0.007911378703121304,
      0.009824517030099008,
      -0.004736171728935669,
      -0.017493062128729937,
      -0.007774221205028345,
      0.013409102639212722,
      0.00011394436399235506,
      -0.0031933303444564914,
      -0.001876677282111413,
      -0.010827474028324796,
      -0.007594839052526778,
      0.003147902281526787,
      -0.0016645853864508083,
      -0.004331815001223959,
      0.006417058367844193,
      -7.285130069889463e-05,
      -0.004252729490304763,
      0.004153417816199651,
      -0.008455110480582636,
      -0.023000028523727394,
      -0.010899365400383384,
      -0.005797890959191505,
      0.0014132857941152551,
      0.0034587725570579737,
      0.009739552007286139,
      0.005218883835082621,
      -0.009272887018562952,
      0.0020051961037371746,
      0.0033557132356712735,
      -0.008337981371115287,
      -0.009333396057468678,
      -0.0025387633101775194,
      0.0057289697890528495,
      -0.005332567589254452,
      0.00577780513686531,
      0.0019410751689565933,
      0.018547773263884626,
      -0.003636973742988742,
      -0.006801543400023685,
      -0.003488706974860766,
      -0.0006781418155498986,
      -0.002396392269907197,
      0.004249010371177038,
      0.014654455089429502,
      -0.003225326687966303,
      0.0005354465427651724,
      -0.002293275791704497,
      -0.00576588775496182,
      -0.003961939024278604,
      -0.0008465170166996014,
      0.0049751499737265255,
      -0.007303724376892823,
      0.006574071615518971,
      -0.008468715701217017,
      0.005449144799569581,
      -0.0005639564467614692,
      -0.005549369198571618,
      0.009440369401229208,
      0.01040501257438457,
      0.0002080684716362583,
      -0.0010337596643800713,
      -0.002512683819077252,
      -0.0023562632939771863,
      -0.014987657063343528,
      -0.004822644767701794,
      0.005207300695225695,
      0.006356966321430147,
      0.00029017563339420546,
      0.0034508898794964305,
      0.0008283022645123118,
      0.006904143598845176,
      -0.013122955309527597,
      0.007394539950711153,
      -0.0039196767755933625,
      0.0031664345375245046,
      -0.006934540280649414,
      -0.0067402799762599185,
      -0.0011126860993554075,
      -0.0031841507923377763,
      -7.592055632769853e-05,
      0.0019253953019657453,
      -0.0033837986658222558,
      0.0047015617177071905,
      -0.005290776636933418,
      -0.011989514620177073,
      -0.006996856906608392,
      -0.00029726108801774164,
      0.002758746371751148,
      0.0023224831969934,
      -0.002064018530506647,
      0.0021877082999197323,
      0.0013341162147978048,
      -0.0005692880658626216,
      -0.012042834096552248,
      0.0044514716014391826,
      -0.010973427646841276,
      -0.004048287787530791,
      -0.005305998321063808,
      0.010598772232419111,
      0.0009559405837246899,
      0.006401156298430028,
      0.0033395175455193595,
      0.0026446700044861987,
      0.005907920354738709,
      -0.007067357737975618,
      -0.0022361382776623843,
      0.008813432871707867,
      0.011544279416368571,
      0.0005358531932878849,
      0.017202551769510778,
      0.00021551319187309567,
      -0.003820021105377612,
      -0.0046963888622345885,
      0.004157982981374506,
      -0.0012292059222733542,
      0.009273877123701806,
      0.014589847896005105,
      0.013862025819878167,
      -0.00927471877996901,
      -0.008745250252036891,
      -0.008018448016535491,
      -0.0028913690947369552,
      -0.0032767994443166524,
      -0.0013032515275128338,
      0.0010137781507463049,
      0.004008058768921709,
      -0.003923329981876337,
      0.009934530971598342,
      -0.005756840970323105,
      0.011408263195336164,
      0.014894230733062433,
      -0.0023876402243768226,
      0.010520132922941933,
      -0.005526297262238284,
      -0.0011725838769666484,
      -0.002886223105374245,
      0.001529742417060071,
      0.0011433445231374616,
      -0.008535671758607683,
      -0.00402116243945506,
      -0.006782273284094896,
      -0.0031069843050217216,
      -0.004712941747585289,
      -0.005262595203328874,
      -0.007112022212510216,
      0.001369413360074178,
      -0.0020338061871097114,
      0.0015592590338034205,
      0.0062932074827437845,
      0.0004695901068676025,
      0.003477328202366309,
      -0.00634038648046444,
      -0.009074935226168633,
      0.012832651425658606,
      -0.010950122754349584,
      -0.0012108725946588775,
      -0.0006190522411841844,
      -0.00505173436869937,
      -0.0030718843805512754,
      -0.00039198129115297316,
      0.0015665898518694866,
      0.012687895979487019,
      0.015467213416415104,
      0.016469063876536644,
      -0.005180459434509747,
      0.0014065678555423258,
      0.002831789087258031,
      -0.005807990293956116,
      0.0015660526173483134,
      0.010648625833147091,
      0.005412617833866372,
      0.007611572117701051,
      -0.013373696263605094,
      -0.00836594390362642,
      -0.0018621962140938165,
      -0.0076389333041074646,
      -0.013028158715246532,
      0.021059045895122506,
      -0.002818033369795876,
      0.0172719976262565,
      -0.0023214057305998353,
      -0.0023708942381285365,
      0.010075395994132468,
      0.0018876990510670693,
      -0.002661769344271695,
      0.013832192401388783,
      0.007990130392063727,
      -0.0013061109735055217,
      -0.012914659985636982,
      -0.000255575215310079,
      -0.008290552641775651,
      -0.0057837346341898955,
      -0.010548228845988642,
      -0.000776672695416676,
      -0.006069839771062369,
      -0.0033370351980827094,
      0.0017814794517304056,
      0.0033474944908493923,
      -0.007940284321359618,
      -0.0022044666485390705,
      -0.011308061695000064,
      -0.017484864234606042,
      -0.004635275276576429,
      0.0028235691863672694,
      0.007607119656044344,
      -0.00919282173967105,
      -0.0058918464325337875,
      -0.002949131113817218,
      0.00027640574045998317,
      0.01324569018867257,
      0.004457454612120851,
      -0.0026379965051392907,
      0.008216180142967119,
      -0.0006366425311346759,
      0.0016814091197417528,
      -4.669464124896294e-06,
      -0.00558284615399697,
      0.006193636561418037,
      0.010413413468361684,
      0.001472414678137093,
      0.005174843141852999,
      -0.0024694394071859017,
      0.0010837311792078232,
      -0.003226507603992217,
      -0.003380665917472481,
      0.015270457083055062,
      0.007575987112051085,
      -0.00022081335532237524,
      0.00642540893539473,
      0.002441879856448458,
      -0.004313782754613333,
      -0.0017523763869279733,
      0.008159083945937748,
      -0.004821339665720952,
      0.0009103167839189868,
      -0.0008124822003126496,
      -0.003083550464562762,
      -0.007971373470597034,
      -0.005967105822836324,
      0.001919877129524004,
      -0.01066622081210356,
      0.011872094316718148,
      0.008855538955770882,
      -0.01065301322407717,
      0.0012532962639213896,
      0.015559365970727403,
      -0.007144182725595478,
      0.009267658520158113,
      -0.009467210542327754,
      -0.0028015210150771947,
      0.014299596170478414,
      0.013531691922024918,
      0.002915396893629916,
      0.007869922615709355,
      0.006236645038115418,
      0.0007051047575386334,
      0.005956269303276718,
      0.013255255587380922,
      0.011199333069101643,
      0.010747501003647911,
      0.015031035337737923,
      -0.008005105074446881,
      -0.0034501906564136362,
      0.009678099712300253,
      0.012203930487841732,
      -0.0009617208518690747,
      0.008614595408958864,
      0.0017890972491005576,
      -0.008260932823244747,
      0.010558924517005191,
      -0.005081582950062771,
      0.00614824869478424,
      -0.0002524090371481632,
      -5.785575012855897e-05,
      0.0016972074184580918,
      -0.0013295454517008554,
      0.012639296763519428,
      0.004345959571504536,
      0.009758776616229127,
      0.00730006501310487,
      0.002359255848076854,
      -0.004194947610659274,
      -0.003987679208539663,
      -0.005241366509234561,
      -0.00124004888525325,
      -0.007889262666869483,
      0.0059891721272526,
      0.0019575491857343314,
      -0.0066278450924055704,
      -0.008483626971886557,
      0.0021411367844860283,
      -0.004644532127127803,
      0.0017867978498063877,
      -0.0036690477677603626,
      0.0009814753507645974,
      0.007408389057679477,
      -0.011248945744246086,
      -0.0036536566640614217,
      0.002209667611348467,
      -0.0025190454054827647,
      0.006550575615852497,
      0.002825659820842242,
      0.0023341516800269298,
      0.01161042136387837,
      -0.00419873906404452,
      0.01266382336818714,
      0.0038896548947881093,
      0.0044984923897234234,
      0.0012314453637373732,
      -0.0039509200321658665,
      -0.006758304943674789,
      -0.0055276425006733085,
      -0.00045101415550650954,
      -0.00926496207188344,
      -0.00910103025534319,
      -0.01033826193725234,
      -0.012885874964952217,
      0.000870498393909006,
      0.004185977209074904,
      -0.012306773946666384,
      -0.007021280168339947,
      -0.011823190965479133,
      0.009249770979843036,
      0.006716514220141498,
      -0.005781228956666981
    ]
  ],
  "intercept_": [
    0.039078169014687456
  ],
  "sklearn_version": "0.19.1",
  "dims": [
    "pair",
    "frequency"
  ],
  "coords": {
    "channel": [
      "LF1-LF2",
      "LF2-LF3",
      "LF3-LF4",
      "LF4-LF5",
      "LF5-LF6",
      "LF6-LF7",
      "LF7-LF8",
      "LF8-LF1",
      "LPMS1-LPMS2",
      "LPMS2-LPMS3",
      "LPMS3-LPMS4",
      "LPMS4-LPMS5",
      "LPMS5-LPMS6",
      "LPMS6-LPMS7",
      "LPMS7-LPMS8",
      "LPMS8-LPMS9",
      "LPMS9-LPMS10",
      "LPMS10-LPMS1",
      "LPMI1-LPMI2",
      "LPMI2-LPMI3",
      "LPMI3-LPMI4",
      "LPMI4-LPMI5",
      "LPMI5-LPMI6",
      "LPMI6-LPMI7",
      "LPMI7-LPMI8",
      "LPMI8-LPMI9",
      "LPMI9-LPMI10",
      "LPMI10-LPMI11",
      "LPMI11-LPMI12",
      "LPMI12-LPMI13",
      "LPMI13-LPMI14",
      "LPMI14-LPMI1",
      "LS1-LS2",
      "LS2-LS3",
      "LS3-LS4",
      "LS4-LS5",
      "LS5-LS6",
      "LS6-LS7",
      "LS7-LS8",
      "LS8-LS9",
      "LS9-LS10",
      "LS10-LS11",
      "LS11-LS12",
      "LS12-LS1",
      "LM1-LM2",
      "LM2-LM3",
      "LM3-LM4",
      "LM4-LM5",
      "LM5-LM6",
      "LM6-LM7",
      "LM7-LM8",
      "LM8-LM1",
      "RPST1-RPST2",
      "RPST2-RPST3",
      "RPST3-RPST4",
      "RPST4-RPST5",
      "RPST5-RPST6",
      "RPST6-RPST7",
      "RPST7-RPST8",
      "RPST8-RPST9",
      "RPST9-RPST10",
      "RPST10-RPST1",
      "RJ1-RJ2",
      "RJ2-RJ3",
      "RJ3-RJ4",
      "RJ4-RJ5",
      "RJ5-RJ6",
      "RJ6-RJ7",
      "RJ7-RJ8",
      "RJ8-RJ9",
      "RJ9-RJ10",
      "RJ10-RJ11",
      "RJ11-RJ12",
      "RJ12-RJ13",
      "RJ13-RJ14",
      "RJ14-RJ15",
      "RJ15-RJ16",
      "RJ16-RJ1",
      "RS1-RS2",
      "RS2-RS3",
      "RS3-RS4",
      "RS4-RS5",
      "RS5-RS6",
      "RS6-RS7",
      "RS7-RS8",
      "RS8-RS9",
      "RS9-RS10",
      "RS10-RS1",
      "RMS1-RMS2",
      "RMS2-RMS3",
      "RMS3-RMS4",
      "RMS4-RMS5",
      "RMS5-RMS6",
      "RMS6-RMS1",
      "RMS7-RMS8",
      "RMS8-RMS9",
      "RMS9-RMS10",
      "RMS10-RMS7",
      "RPMS1-RPMS2",
      "RPMS2-RPMS3",
      "RPMS3-RPMS4",
      "RPMS4-RPMS5",
      "RPMS5-RPMS6",
      "RPMS6-RPMS7",
      "RPMS7-RPMS8",
      "RPMS8-RPMS1",
      "RMI1-RMI2",
      "RMI2-RMI3",
      "RMI3-RMI4",
      "RMI4-RMI5",
      "RMI5-RMI6",
      "RMI6-RMI7",
      "RMI7-RMI8",
      "RMI8-RMI1",
      "RPMM1-RPMM2",
      "RPMM2-RPMM3",
      "RPMM3-RPMM4",
      "RPMM4-RPMM5",
      "RPMM5-RPMM6",
      "RPMM6-RPMM7",
      "RPMM7-RPMM8",
      "RPMM8-RPMM9",
      "RPMM9-RPMM10",
      "RPMM10-RPMM11",
      "RPMM12-RPMM1",
      "RFO1-RFO2",
      "RFO2-RFO3",
      "RFO3-RFO4",
      "RFO4-RFO5",
      "RFO5-RFO6",
      "RFO6-RFO7",
      "RFO7-RFO8",
      "RFO8-RFO1",
      "RFS1-RFS2",
      "RFS2-RFS3",
      "RFS3-RFS4",
      "RFS4-RFS5",
      "RFS5-RFS6",
      "RFS6-RFS1",
      "RPMI1-RPMI2",
      "RPMI2-RPMI3",
      "RPMI3-RPMI4",
      "RPMI4-RPMI5",
      "RPMI5-RPMI6",
      "RPMI6-RPMI7",
      "RPMI7-RPMI8",
      "RPMI8-RPMI9",
      "RPMI9-RPMI10",
      "RPMI10-RPMI1",
      "RFI1-RFI2",
      "RFI2-RFI3",
      "RFI3-RFI4",
      "RFI4-RFI5",
      "RFI5-RFI6",
      "RFI6-RFI7",
      "RFI7-RFI8",
      "RFI8-RFI1",
      "RFI9-RFI10",
      "RFI10-RFI11",
      "RFI11-RFI12",
      "RFI12-RFI13",
      "RFI13-RFI14",
      "RFI14-RFI9",
      "ROFC1-ROFC2",
      "ROFC2-ROFC3",
      "ROFC3-ROFC4",
      "ROFC4-ROFC5",
      "ROFC5-ROFC6",
      "ROFC6-ROFC7",
      "ROFC7-ROFC8",
      "ROFC8-ROFC9",
      "ROFC9-ROFC10",
      "ROFC10-ROFC11",
      "ROFC11-ROFC12",
      "ROFC12-ROFC13",
      "ROFC13-ROFC14",
      "ROFC14-ROFC1"
    ],
    "frequency": [
      6.0,
      9.75368155833899,
      15.855717323580349,
      25.77526960887363,
      41.90062864088102,
      68.11423147622861,
      110.72742056835402,
      179.99999999999997
    ]
  }
}
